network unknown {
}
variable Age {
    type discrete [ 3 ] { 0, 1, 2 };
}
variable Department {
    type discrete [ 3 ] { 0, 1, 2 };
}
variable Education {
    type discrete [ 3 ] { 0, 1, 2 };
}
variable Gender {
    type discrete [ 2 ] { 0, 1 };
}
variable JobLevel {
    type discrete [ 3 ] { 0, 1, 2 };
}
variable JobSatisfaction {
    type discrete [ 2 ] { 0, 1 };
}
variable MonthlyIncome {
    type discrete [ 3 ] { 0, 1, 2 };
}
variable WorkLifeBalance {
    type discrete [ 2 ] { 0, 1 };
}
probability ( Age ) {
    table 0.3147653763220043, 0.5162234315638156, 0.16901119211418011 ;
}
probability ( Department ) {
    table 0.041842078242119315, 0.6702946914467605, 0.2878632303111202 ;
}
probability ( Education ) {
    table 0.30675634048670297, 0.6586405175069309, 0.034603142006366154 ;
}
probability ( Gender ) {
    table 0.40214601088407437, 0.5978539891159257 ;
}
probability ( JobLevel | Age, Education, Gender ) {
    ( 0, 0, 0 ) 0.9083063646170443, 0.08198489751887811, 0.009708737864077669;
    ( 0, 0, 1 ) 0.738881829733164, 0.23252858958068615, 0.028589580686149935;
    ( 0, 1, 0 ) 0.789839944328462, 0.19554627696590118, 0.014613778705636743;
    ( 0, 1, 1 ) 0.6461611826418694, 0.29756795422031473, 0.05627086313781593;
    ( 0, 2, 0 ) 0.5833333333333334, 0.3333333333333333, 0.08333333333333333;
    ( 0, 2, 1 ) 0.4444444444444444, 0.4027777777777778, 0.1527777777777778;
    ( 1, 0, 0 ) 0.8294930875576036, 0.14838709677419354, 0.022119815668202765;
    ( 1, 0, 1 ) 0.6459589867310012, 0.2882991556091677, 0.06574185765983112;
    ( 1, 1, 0 ) 0.7319548872180451, 0.22894736842105262, 0.039097744360902256;
    ( 1, 1, 1 ) 0.5983451536643026, 0.3127659574468085, 0.08888888888888889;
    ( 1, 2, 0 ) 0.5824742268041238, 0.31958762886597936, 0.0979381443298969;
    ( 1, 2, 1 ) 0.45614035087719296, 0.37280701754385964, 0.17105263157894737;
    ( 2, 0, 0 ) 0.6702127659574468, 0.2632978723404255, 0.06648936170212766;
    ( 2, 0, 1 ) 0.49014084507042255, 0.352112676056338, 0.15774647887323945;
    ( 2, 1, 0 ) 0.573055028462998, 0.3225806451612903, 0.10436432637571158;
    ( 2, 1, 1 ) 0.4877868245743893, 0.3390081421169504, 0.17320503330866024;
    ( 2, 2, 0 ) 0.3684210526315789, 0.35526315789473684, 0.27631578947368424;
    ( 2, 2, 1 ) 0.25, 0.475, 0.275;

}
probability ( JobSatisfaction | JobLevel, MonthlyIncome, WorkLifeBalance ) {
    ( 0, 0, 0 ) 0.7923003802281369, 0.20769961977186313;
    ( 0, 0, 1 ) 0.7030345800988003, 0.29696541990119973;
    ( 0, 1, 0 ) 0.7031662269129287, 0.29683377308707126;
    ( 0, 1, 1 ) 0.6763445978105664, 0.3236554021894336;
    ( 0, 2, 0 ) 0.6153846153846154, 0.38461538461538464;
    ( 0, 2, 1 ) 0.5585874799357945, 0.44141252006420545;
    ( 1, 0, 0 ) 0.7965116279069767, 0.20348837209302326;
    ( 1, 0, 1 ) 0.6973853407629661, 0.30261465923703385;
    ( 1, 1, 0 ) 0.6382978723404256, 0.3617021276595745;
    ( 1, 1, 1 ) 0.634020618556701, 0.36597938144329895;
    ( 1, 2, 0 ) 0.5584415584415584, 0.44155844155844154;
    ( 1, 2, 1 ) 0.4856175972927242, 0.5143824027072758;
    ( 2, 0, 0 ) 0.7596153846153846, 0.2403846153846154;
    ( 2, 0, 1 ) 0.6836461126005362, 0.3163538873994638;
    ( 2, 1, 0 ) 0.6486486486486487, 0.35135135135135137;
    ( 2, 1, 1 ) 0.571875, 0.428125;
    ( 2, 2, 0 ) 0.45985401459854014, 0.5401459854014599;
    ( 2, 2, 1 ) 0.43333333333333335, 0.5666666666666667;

}
probability ( MonthlyIncome | Department, JobLevel ) {
    ( 0, 0 ) 0.8109640831758034, 0.1001890359168242, 0.0888468809073724;
    ( 0, 1 ) 0.6367521367521367, 0.15384615384615385, 0.2094017094017094;
    ( 0, 2 ) 0.3269230769230769, 0.19230769230769232, 0.4807692307692308;
    ( 1, 0 ) 0.7580198476805908, 0.18647588276021232, 0.055504269559196864;
    ( 1, 1 ) 0.6236374067699368, 0.2274813539873781, 0.14888123924268504;
    ( 1, 2 ) 0.3805309734513274, 0.3174778761061947, 0.3019911504424779;
    ( 2, 0 ) 0.5844225126700453, 0.31741797812750067, 0.09815950920245399;
    ( 2, 1 ) 0.47515316541865216, 0.35194009530292714, 0.1729067392784207;
    ( 2, 2 ) 0.2982005141388175, 0.3444730077120823, 0.35732647814910024;

}
probability ( WorkLifeBalance | Department, JobLevel ) {
    ( 0, 0 ) 0.19659735349716445, 0.8034026465028355;
    ( 0, 1 ) 0.21367521367521367, 0.7863247863247863;
    ( 0, 2 ) 0.25, 0.75;
    ( 1, 0 ) 0.21855527348257558, 0.7814447265174245;
    ( 1, 1 ) 0.22920252438324729, 0.7707974756167527;
    ( 1, 2 ) 0.24225663716814158, 0.7577433628318584;
    ( 2, 0 ) 0.30328087489997335, 0.6967191251000266;
    ( 2, 1 ) 0.3036078965282505, 0.6963921034717495;
    ( 2, 2 ) 0.30848329048843187, 0.6915167095115681;

}
