network unknown {
}
variable Age {
    type discrete [ 3 ] { 0, 1, 2 };
}
variable Department {
    type discrete [ 3 ] { 0, 1, 2 };
}
variable Education {
    type discrete [ 3 ] { 0, 1, 2 };
}
variable Gender {
    type discrete [ 2 ] { 0, 1 };
}
variable JobLevel {
    type discrete [ 3 ] { 0, 1, 2 };
}
variable JobSatisfaction {
    type discrete [ 2 ] { 0, 1 };
}
variable MonthlyIncome {
    type discrete [ 3 ] { 0, 1, 2 };
}
variable WorkLifeBalance {
    type discrete [ 2 ] { 0, 1 };
}
probability ( Age ) {
    table 0.3519868569668344, 0.3416675223328884, 0.3063456207002772 ;
}
probability ( Department ) {
    table 0.041842078242119315, 0.6702946914467605, 0.2878632303111202 ;
}
probability ( Education ) {
    table 0.30675634048670297, 0.3839716603347366, 0.3092719991785604 ;
}
probability ( Gender ) {
    table 0.40214601088407437, 0.5978539891159257 ;
}
probability ( JobLevel | Age, Education, Gender ) {
    ( 0, 0, 0 ) 0.6616161616161617, 0.2595959595959596, 0.07878787878787878;
    ( 0, 0, 1 ) 0.46973365617433416, 0.387409200968523, 0.14285714285714285;
    ( 0, 1, 0 ) 0.6487226277372263, 0.2664233576642336, 0.08485401459854014;
    ( 0, 1, 1 ) 0.452, 0.38285714285714284, 0.16514285714285715;
    ( 0, 2, 0 ) 0.4066666666666667, 0.395, 0.19833333333333333;
    ( 0, 2, 1 ) 0.328125, 0.3658854166666667, 0.3059895833333333;
    ( 1, 0, 0 ) 0.6229946524064172, 0.26871657754010697, 0.10828877005347594;
    ( 1, 0, 1 ) 0.39499553172475427, 0.40035746201966044, 0.20464700625558535;
    ( 1, 1, 0 ) 0.5184782608695652, 0.3467391304347826, 0.13478260869565217;
    ( 1, 1, 1 ) 0.4030390738060782, 0.36903039073806077, 0.22793053545586106;
    ( 1, 2, 0 ) 0.3726647000983284, 0.39823008849557523, 0.22910521140609635;
    ( 1, 2, 1 ) 0.3131381892443839, 0.36759700476514634, 0.3192648059904697;
    ( 2, 0, 0 ) 0.5707692307692308, 0.3153846153846154, 0.11384615384615385;
    ( 2, 0, 1 ) 0.3112745098039216, 0.38112745098039214, 0.3075980392156863;
    ( 2, 1, 0 ) 0.4547325102880658, 0.360082304526749, 0.18518518518518517;
    ( 2, 1, 1 ) 0.3612950699043414, 0.3620309050772627, 0.2766740250183959;
    ( 2, 2, 0 ) 0.3392857142857143, 0.39404761904761904, 0.26666666666666666;
    ( 2, 2, 1 ) 0.2578947368421053, 0.3676691729323308, 0.3744360902255639;

}
probability ( JobSatisfaction | JobLevel, MonthlyIncome, WorkLifeBalance ) {
    ( 0, 0, 0 ) 0.7037444933920705, 0.29625550660792954;
    ( 0, 0, 1 ) 0.6048192771084338, 0.39518072289156625;
    ( 0, 1, 0 ) 0.6171428571428571, 0.38285714285714284;
    ( 0, 1, 1 ) 0.5601389491966999, 0.43986105080330007;
    ( 0, 2, 0 ) 0.5206896551724138, 0.4793103448275862;
    ( 0, 2, 1 ) 0.48914285714285716, 0.5108571428571429;
    ( 1, 0, 0 ) 0.71900826446281, 0.2809917355371901;
    ( 1, 0, 1 ) 0.5998715478484264, 0.40012845215157355;
    ( 1, 1, 0 ) 0.572463768115942, 0.427536231884058;
    ( 1, 1, 1 ) 0.5709984947315605, 0.42900150526843955;
    ( 1, 2, 0 ) 0.5139573070607554, 0.4860426929392447;
    ( 1, 2, 1 ) 0.4532563025210084, 0.5467436974789915;
    ( 2, 0, 0 ) 0.7297297297297297, 0.2702702702702703;
    ( 2, 0, 1 ) 0.5703971119133574, 0.4296028880866426;
    ( 2, 1, 0 ) 0.5803571428571429, 0.41964285714285715;
    ( 2, 1, 1 ) 0.5303867403314917, 0.4696132596685083;
    ( 2, 2, 0 ) 0.46837146702557203, 0.531628532974428;
    ( 2, 2, 1 ) 0.46799224054316196, 0.532007759456838;

}
probability ( MonthlyIncome | Department, JobLevel ) {
    ( 0, 0 ) 0.6122994652406417, 0.2887700534759358, 0.09893048128342247;
    ( 0, 1 ) 0.3797909407665505, 0.2578397212543554, 0.3623693379790941;
    ( 0, 2 ) 0.09090909090909091, 0.24675324675324675, 0.6623376623376623;
    ( 1, 0 ) 0.544494459833795, 0.3287742382271468, 0.12673130193905818;
    ( 1, 1 ) 0.3029513888888889, 0.3552517361111111, 0.341796875;
    ( 1, 2 ) 0.10104790419161677, 0.2275449101796407, 0.6714071856287425;
    ( 2, 0 ) 0.38023152270703475, 0.44345503116651824, 0.176313446126447;
    ( 2, 1 ) 0.19923187710033605, 0.40038406144983196, 0.40038406144983196;
    ( 2, 2 ) 0.05242566510172144, 0.23630672926447574, 0.7112676056338029;

}
probability ( WorkLifeBalance | Department, JobLevel ) {
    ( 0, 0 ) 0.12566844919786097, 0.8743315508021391;
    ( 0, 1 ) 0.10452961672473868, 0.8954703832752613;
    ( 0, 2 ) 0.18181818181818182, 0.8181818181818182;
    ( 1, 0 ) 0.20204293628808864, 0.7979570637119113;
    ( 1, 1 ) 0.19227430555555555, 0.8077256944444444;
    ( 1, 2 ) 0.21369760479041916, 0.7863023952095808;
    ( 2, 0 ) 0.3045414069456812, 0.6954585930543188;
    ( 2, 1 ) 0.2918867018722996, 0.7081132981277004;
    ( 2, 2 ) 0.3458528951486698, 0.6541471048513302;

}
